{"embedding.weight": {"shape": [8, 16], "dtype": "f", "data": [-0.5279037952423096, -0.7936679124832153, -0.20788352191448212, -0.6900554299354553, -0.8669698238372803, -0.19681796431541443, 0.8359100818634033, 0.6009047031402588, 0.5303252339363098, -0.5561436414718628, 0.07336001843214035, -0.4466347098350525, -0.6546709537506104, -0.7876334190368652, -0.5711991190910339, 0.8549512624740601, 0.6578400731086731, 0.6133046746253967, 0.6008957028388977, -0.6131287813186646, -0.3803000748157501, 0.25395119190216064, 0.4637894034385681, 0.709296703338623, 0.7601014971733093, -0.8265634775161743, 0.21170376241207123, 0.3434029221534729, 0.011907551437616348, -0.6444196701049805, -0.0528242252767086, -0.8213075995445251, 0.8691767454147339, 0.7309683561325073, 0.09527774155139923, -0.3995085060596466, 0.8177405595779419, 0.14473360776901245, 0.7646344900131226, 0.6960881948471069, 0.01674475148320198, -0.17210792005062103, 0.19782494008541107, -0.13791397213935852, -0.6773588061332703, -0.3897767961025238, 0.6251846551895142, -0.9135230779647827, -0.9073560237884521, 0.2527014911174774, -0.43913358449935913, 0.06924358755350113, -0.0575198270380497, -0.31431347131729126, 0.9945577383041382, -0.6088529825210571, -0.17441068589687347, -0.5946587920188904, 0.2653299570083618, -0.4473903179168701, -0.28833848237991333, 0.4938853681087494, -0.3586621880531311, 0.11705796420574188, 0.8086302280426025, -0.7980411052703857, -0.8767794966697693, -0.5422611236572266, 0.5303244590759277, 0.23086415231227875, -0.5251656770706177, -0.33786600828170776, -0.6449205875396729, -0.08196249604225159, -0.9143776297569275, 0.3945837616920471, 0.7918555736541748, 0.9094752073287964, 0.4697559177875519, 0.9197351932525635, -0.9636249542236328, -0.4220070540904999, 0.9320135116577148, 0.5504788756370544, -0.17914463579654694, 0.8866167068481445, 0.24102094769477844, 0.6358556151390076, -0.413179486989975, -0.6171696186065674, -0.11171551793813705, -0.7271247506141663, -0.23673072457313538, 0.9236272573471069, -0.33738553524017334, -0.9812070727348328, -0.9104056358337402, -0.6608659029006958, 0.567491352558136, -0.27455148100852966, -0.41933152079582214, -0.8057955503463745, 0.9634972810745239, -0.15209496021270752, -0.5841662883758545, -0.8813209533691406, -0.8894587755203247, -0.6626594662666321, 0.35365423560142517, -0.7007189393043518, -0.918215274810791, -0.0186647679656744, -0.5018826723098755, 0.9952730536460876, -0.7554534673690796, 0.058483172208070755, 0.5475842356681824, -0.18135753273963928, 0.9753147959709167, -0.04447607323527336, -0.5162756443023682, -0.1787550300359726, -0.9262616038322449, -0.15755808353424072, -0.502828061580658, 0.778600811958313, 0.662094235420227, -0.0028405608609318733]}, "transformer.attention.query.weight": {"shape": [16, 16], "dtype": "f", "data": [-0.4591105282306671, -0.05629589781165123, -0.30677103996276855, 0.07447773218154907, -0.17758941650390625, 0.4844578206539154, -0.2682810425758362, -0.24750006198883057, 0.09011062234640121, -0.04478976130485535, 0.0523185171186924, -0.017603730782866478, 0.22972838580608368, 0.4328310191631317, 0.27796638011932373, 0.22633467614650726, -0.2351062297821045, -0.24726265668869019, -0.24118323624134064, 0.4088568389415741, 0.02074616216123104, 0.6071219444274902, -0.13899575173854828, 0.14941923320293427, 0.17584963142871857, -0.047516439110040665, 0.2010100781917572, -0.047118790447711945, 0.006988494656980038, 0.5105832815170288, -0.10368337482213974, 0.2828241288661957, 0.31791457533836365, -0.3762519955635071, 0.19783847033977509, 0.05362192168831825, 0.00682994956150651, -0.27013662457466125, 0.16110055148601532, -0.20971640944480896, 0.38536837697029114, 0.10122010856866837, -0.029057994484901428, -0.15208396315574646, -0.009391783736646175, -0.051828864961862564, 0.026133943349123, 0.3715623915195465, -0.07705873996019363, -0.31228357553482056, 0.14879198372364044, -0.4119638502597809, 0.11695846170186996, -0.3253408372402191, 0.19923000037670135, 0.09180732816457748, 0.41106322407722473, 0.07475646585226059, 0.5132638812065125, -0.21677501499652863, -0.07998758554458618, -0.25712335109710693, 0.06960522383451462, 0.27770963311195374, -0.2807635962963104, 0.25545138120651245, -0.23446790874004364, 0.08806711435317993, 0.13627995550632477, 0.14942975342273712, 0.21556046605110168, 0.10100153088569641, -0.40418344736099243, -0.06274284422397614, -0.07495106756687164, -0.09198971092700958, -0.2730768918991089, 0.41431355476379395, 0.29133960604667664, -0.3588021695613861, -0.22876639664173126, 0.35262805223464966, 0.30402088165283203, 0.32584765553474426, 0.01939452812075615, -0.044563937932252884, 0.36312589049339294, -0.178222194314003, -0.30960696935653687, 0.17005960643291473, 0.20069600641727448, -0.1967291682958603, -0.19383053481578827, 0.23355861008167267, 0.2205154448747635, -0.5236273407936096, 0.030563678592443466, 0.07493124157190323, -0.08243223279714584, 0.3901943564414978, 0.07876112312078476, 0.11390688270330429, -0.014152012765407562, 0.194721981883049, -0.3436896502971649, -0.11621735990047455, -0.16803084313869476, -0.22128355503082275, -0.05846575275063515, 0.2730269134044647, 0.19798456132411957, -0.38985690474510193, -0.3903815746307373, 0.26401421427726746, -0.06082695350050926, 0.37922775745391846, -0.1131645068526268, -0.14097706973552704, 0.060091130435466766, 0.21219654381275177, 0.027464132755994797, 0.16039396822452545, 0.42577260732650757, -0.19277624785900116, -0.22924017906188965, 0.15699350833892822, -0.12466970086097717, 0.18409311771392822, -0.01726873591542244, 0.36183783411979675, 0.004769372288137674, 0.3398210406303406, 0.3057846128940582, 0.11085545271635056, -0.0913202241063118, -0.1444687694311142, -0.040568843483924866, -0.099761962890625, -0.11996104568243027, -0.14035990834236145, -0.010960755869746208, -0.08127740025520325, 0.30206990242004395, -0.34617581963539124, 0.23847775161266327, 0.09348120540380478, 0.0743592232465744, -0.06918439269065857, 0.15606988966464996, -0.33878082036972046, 0.028459984809160233, 0.21388782560825348, -0.2548341453075409, 0.09529778361320496, -0.23704425990581512, -0.09170076996088028, -0.17637395858764648, -0.3512677252292633, 0.29874658584594727, 0.06771579384803772, 0.42925000190734863, -0.19644106924533844, 0.26664653420448303, -0.5043948888778687, -0.00967070646584034, -0.12966498732566833, -0.06124424934387207, 0.2545802891254425, 0.3161199986934662, 0.10550106316804886, -0.07698538154363632, 0.17785224318504333, 0.24077975749969482, -0.17487028241157532, -0.05960759148001671, 0.2105463296175003, -0.2803068161010742, 0.21614155173301697, -0.04635895788669586, 0.19612377882003784, 0.058459535241127014, 0.09663673490285873, -0.022840088233351707, -0.1144481673836708, 0.1256144642829895, 0.11549817770719528, 0.5828936696052551, -0.017502708360552788, -0.36735835671424866, -0.10051912814378738, 0.013819590210914612, -0.12168769538402557, 0.12470443546772003, -0.38879695534706116, -0.22310766577720642, -0.17006057500839233, 0.18973343074321747, -0.04854965582489967, -0.1431441605091095, 0.13886995613574982, -0.08898108452558517, -0.10011596232652664, -0.5805918574333191, 0.43612006306648254, 0.5007739067077637, 0.17943605780601501, 0.15921474993228912, 0.05395542085170746, -0.22514498233795166, 0.02885284647345543, -0.09381061792373657, 0.3739912807941437, 0.3898453414440155, 0.19842511415481567, -0.2514216899871826, -0.13410310447216034, -0.3325803875923157, 0.22152674198150635, -0.4623023271560669, 0.19841834902763367, 0.3343839645385742, 0.1648828685283661, 0.424224317073822, -0.2631589472293854, 0.036682043224573135, -0.1760926991701126, -0.213172048330307, -0.19507455825805664, -0.014902698807418346, -0.03156781569123268, -0.4210575819015503, 0.2752758264541626, -0.3043845295906067, 0.08915054053068161, -0.22557084262371063, 0.30999529361724854, 0.36769455671310425, 0.46209561824798584, 0.374754935503006, 0.13653066754341125, -0.030092816799879074, 0.3753608465194702, 0.17005380988121033, 0.21091239154338837, 0.10786297917366028, -0.19931384921073914, 0.23463939130306244, -0.026600338518619537, -0.3664225935935974, -0.10746267437934875, 0.02207510732114315, -0.10163243860006332, -0.010853385552763939, 0.11447343230247498, 0.28426218032836914, -0.2452940046787262]}, "transformer.attention.query.bias": {"shape": [1, 16], "dtype": "f", "data": [0.0456155501306057, 0.09107929468154907, -0.2544265389442444, 0.1176263764500618, -0.22569501399993896, 0.0746176466345787, -0.18000884354114532, -0.23083597421646118, 0.21089056134223938, 0.14709699153900146, -0.06992074102163315, -0.07088450342416763, -0.004127513617277145, 0.14351332187652588, -0.016896437853574753, 0.11851945519447327]}, "transformer.attention.key.weight": {"shape": [16, 16], "dtype": "f", "data": [0.5808184146881104, 0.16685500741004944, 0.18500560522079468, 0.23239172995090485, 0.27840253710746765, 0.47009748220443726, -0.20993830263614655, 0.01301652006804943, -0.38744932413101196, 0.262502521276474, 0.2257946878671646, 0.11218567192554474, 0.3522229492664337, 0.43427640199661255, 0.3269709050655365, -0.43323835730552673, 0.400741845369339, 0.08889564871788025, 0.019247155636548996, 0.0566551499068737, 0.25476911664009094, 0.5473315715789795, -0.28077587485313416, -0.16025765240192413, 0.005689242854714394, 0.4739798605442047, 0.24337175488471985, 0.4591340124607086, 0.27974244952201843, 0.5118047595024109, 0.3839580714702606, -0.021444974467158318, 0.22977685928344727, 0.22125793993473053, -0.30146339535713196, -2.013529956457205e-05, 0.029599225148558617, -0.21552909910678864, 0.27137529850006104, -0.2929185926914215, -0.1304454207420349, -0.27420949935913086, -0.0286419615149498, 0.21779540181159973, 0.13057905435562134, -0.3250061571598053, 0.20111100375652313, 0.252013623714447, -0.08855713158845901, 0.03142477944493294, -0.06067079305648804, -0.04192158207297325, 0.03092103637754917, -0.5701625943183899, 0.35123080015182495, -0.44499045610427856, 0.0859416276216507, -0.12199387699365616, -0.18377403914928436, 0.2866922914981842, -0.012178346514701843, 0.06725490838289261, -0.041798755526542664, 0.12854164838790894, -0.11116621643304825, -0.7377809882164001, 0.06795493513345718, 0.4651222825050354, 0.06009279191493988, 0.500469982624054, -0.3879298269748688, 0.18793584406375885, -0.0864063948392868, 0.1154075562953949, -0.008977582678198814, -0.31415531039237976, -0.23879577219486237, 0.4932985007762909, 0.13321420550346375, -0.19043949246406555, -0.06639264523983002, -0.49447426199913025, 0.08530186116695404, 0.31422969698905945, -0.23769186437129974, 0.28337299823760986, -0.26817768812179565, 0.07028553634881973, -0.252584844827652, -0.14340214431285858, -0.12067367881536484, 0.08735530078411102, -0.22472038865089417, 0.2742828130722046, -0.3116004168987274, 0.2671639025211334, -0.1942863017320633, -0.45319777727127075, 0.014399087987840176, 0.351296991109848, 0.03499363362789154, 0.4333741068840027, -0.1935333013534546, -0.019912930205464363, -0.13289159536361694, -0.07683547586202621, 0.3926464319229126, -0.25494134426116943, -0.14515389502048492, 0.25181934237480164, -0.27354881167411804, 0.10516466945409775, -0.38350409269332886, -0.08142326772212982, -0.0379212461411953, 0.3934124708175659, -0.05850714445114136, 0.2885768711566925, -0.35618728399276733, -0.0922260731458664, -0.6023411154747009, 0.3069075644016266, -0.45865193009376526, -0.15453112125396729, -0.10650372505187988, 0.3732174336910248, 0.013098004274070263, 0.37288254499435425, 0.011657081544399261, -0.6498844027519226, 0.3296026885509491, -0.09363792091608047, -0.24495351314544678, 0.40845489501953125, -0.029233703389763832, 0.2138802409172058, 0.1098085418343544, -0.1786029189825058, 0.223027765750885, -0.0036871510092169046, 0.10934212058782578, 0.22757183015346527, -0.303423672914505, -0.14357228577136993, -0.3048151731491089, 0.0547381155192852, 0.13661415874958038, 0.028551576659083366, -0.2545875310897827, -0.055771585553884506, 0.4566245675086975, 0.17227835953235626, -0.0708533301949501, -0.408373087644577, 0.04715219512581825, -0.2755550742149353, -0.11630359292030334, -0.36329641938209534, -0.1359773725271225, -0.10142023116350174, 0.058428846299648285, 0.5520225167274475, 0.20237907767295837, -0.37181001901626587, -0.07731262594461441, -0.08336450159549713, 0.1364869773387909, -0.23911772668361664, 0.07741545140743256, 0.10209988802671432, 0.16836193203926086, 0.28480327129364014, -0.07171781361103058, -0.6008825898170471, -0.0988096296787262, 0.11968972533941269, -0.3062589466571808, -0.3874768614768982, -0.21963652968406677, 0.03954428806900978, 0.027614224702119827, -0.014827124774456024, -0.2893807291984558, -0.4368552267551422, -0.11796578764915466, 0.2793762981891632, -0.3799371123313904, -0.18542340397834778, -0.020887814462184906, 0.27710676193237305, 0.25926023721694946, 0.2053661197423935, 0.43503016233444214, 0.15424755215644836, 0.030344383791089058, 0.04722118005156517, 0.009825250133872032, 0.09013202786445618, 0.19700868427753448, -0.05082903429865837, 0.165337473154068, 0.003430692246183753, 0.05249917879700661, -0.2558431327342987, -0.21507170796394348, -0.32618820667266846, -0.08306790143251419, -0.3229905366897583, 0.20141200721263885, -0.3862268030643463, 0.12206397205591202, 0.11105576157569885, -0.002205995377153158, 0.4504067897796631, 0.05229552090167999, 0.061467982828617096, -0.027282103896141052, -0.07182715833187103, 0.18589268624782562, -0.15065285563468933, 0.2243661731481552, -0.15953315794467926, -0.09581094235181808, -0.34309518337249756, 0.4464578926563263, 0.15210728347301483, 0.3967586159706116, -0.18344193696975708, 0.16341762244701385, 0.11145444214344025, -0.22326479852199554, 0.28851574659347534, 0.24584440886974335, -0.28027060627937317, 0.3807924687862396, 0.16297656297683716, 0.0679197609424591, -0.06665443629026413, -0.08462783694267273, -0.4486691951751709, -0.08289684355258942, -0.29423096776008606, -0.03968557342886925, 0.08799401670694351, -0.25057387351989746, 0.2865092158317566, 0.08366020023822784, 0.3027333617210388, -0.12285027652978897, -0.09839501231908798, -0.16300001740455627, -0.07514245063066483, 0.17219777405261993, 0.23352311551570892, -0.3482035994529724, -0.07654577493667603]}, "transformer.attention.key.bias": {"shape": [1, 16], "dtype": "f", "data": [-0.20725814998149872, -0.035166963934898376, 0.20589393377304077, -0.10990164428949356, 0.17307181656360626, 0.22425594925880432, 0.16269084811210632, -0.15375879406929016, 0.20921529829502106, 0.21050341427326202, 0.2531435489654541, -0.250556081533432, -0.24281339347362518, -0.09864721447229385, 0.016622206196188927, -0.04009397700428963]}, "transformer.attention.value.weight": {"shape": [16, 16], "dtype": "f", "data": [-0.1773681342601776, 0.03229152783751488, -0.044362153857946396, 0.03785574436187744, 0.21391749382019043, -0.0032396770548075438, 0.15652374923229218, -0.18160411715507507, -0.10245836526155472, -0.13033358752727509, -0.11654882878065109, 0.035970382392406464, -0.3434000611305237, -0.11976891756057739, 0.019102709367871284, 0.11582687497138977, -0.282534658908844, 0.08066260069608688, -0.06868690252304077, 0.2830778956413269, -0.15986141562461853, 0.33048155903816223, 0.08160664141178131, 0.12192212045192719, -0.13144533336162567, -0.11242925375699997, 0.10450614988803864, -0.09435117244720459, -0.1923447996377945, -0.026925092563033104, 0.09499351680278778, -0.35705530643463135, -0.08203047513961792, -0.04725790396332741, -0.03698530048131943, -0.029232993721961975, 0.12955540418624878, -0.21570752561092377, 0.3812038004398346, 0.13123135268688202, 0.00300727691501379, 0.16451168060302734, 0.03572029620409012, -0.26460349559783936, -0.30120694637298584, -0.11481793224811554, -0.1862613707780838, -0.05783636122941971, 0.027193590998649597, 0.20887765288352966, -0.23341836035251617, 0.06691040843725204, 0.6221352219581604, -0.15149109065532684, 0.09542398899793625, 0.0351712740957737, -0.10847298055887222, 0.3769693076610565, -0.1020059734582901, -0.08353589475154877, 0.17962786555290222, -0.2053474485874176, 0.19271636009216309, 0.16244344413280487, -0.3894628584384918, 0.15079627931118011, 0.23726478219032288, -0.07957834005355835, -0.38016143441200256, 0.22518034279346466, 0.07844091951847076, -0.07565870881080627, 0.10144243389368057, 0.025486789643764496, 0.05452542006969452, -0.31873419880867004, 0.05021486431360245, -0.3048899173736572, -0.5428208112716675, -0.4237806499004364, 0.11695495247840881, 0.03779192268848419, 0.30873212218284607, 0.11106836050748825, -0.15421487390995026, -0.02340194396674633, -0.10377668589353561, 0.11510063707828522, -0.07149239629507065, -0.14960741996765137, 0.13403096795082092, 0.09300260245800018, 0.11364895850419998, 0.20481783151626587, -0.29461827874183655, -0.02991625666618347, 0.04479488730430603, -0.2664027810096741, -0.2972560524940491, -0.24649673700332642, 0.15148711204528809, -0.2574440538883209, -0.10818658769130707, -0.09931252896785736, 0.0010995963821187615, 0.20930197834968567, 0.2486746609210968, -0.18687690794467926, -0.018450452014803886, 0.17394907772541046, 0.11217810958623886, 0.3823147714138031, -0.3277653753757477, 0.13308517634868622, 0.3402292728424072, 0.24114219844341278, -0.08627839386463165, 0.29728952050209045, 0.015247276984155178, 0.21811528503894806, 0.2498086541891098, -0.15718872845172882, 0.09914329648017883, 0.12707510590553284, -0.08889798074960709, 0.002207400044426322, -0.5051122307777405, 0.06014092639088631, 0.2221374809741974, 0.04123977944254875, -0.22461745142936707, -0.2789853811264038, -0.2887359857559204, 0.09918462485074997, -0.22828929126262665, -0.2019905000925064, 0.09025880694389343, 0.1314072459936142, -0.19311222434043884, 0.40520983934402466, 0.17832346260547638, 0.02805938757956028, 0.03405620902776718, 0.21982769668102264, 0.08660315722227097, 0.09732779115438461, -0.11329317837953568, 0.05699993297457695, -0.18234343826770782, 0.12749816477298737, -0.001563575235195458, 0.021986091509461403, 0.28604063391685486, 0.1850539594888687, 0.08674001693725586, 0.31712958216667175, 0.2753133773803711, 0.17145781219005585, 0.0008072205237112939, -0.10024673491716385, 0.18333102762699127, 0.03925866261124611, 0.216886505484581, 0.00022532802540808916, -0.39238324761390686, -0.08844342827796936, -0.06175795942544937, -0.22873686254024506, 0.244080051779747, -0.3024207353591919, -0.20068787038326263, 0.3832608163356781, 0.5112748742103577, -0.1337980329990387, -0.4996272921562195, 0.3099064230918884, -0.042079176753759384, -0.2544810473918915, 0.42940378189086914, 0.12759952247142792, -0.6839604377746582, -0.053874384611845016, -0.19737888872623444, -0.1481819599866867, 0.1530005931854248, -0.07788482308387756, 0.061310648918151855, -0.12057043612003326, 0.3788227438926697, -0.29838570952415466, -0.5143382549285889, -0.26752474904060364, -0.43857666850090027, -0.28561776876449585, 0.39223185181617737, -0.15390044450759888, -0.6678285598754883, 0.1017850711941719, -0.005252991337329149, 0.15051980316638947, 0.07130216807126999, -0.059927962720394135, 0.27504947781562805, -0.19903795421123505, 0.1092333123087883, -0.21171508729457855, -0.5682877898216248, -0.30075326561927795, 0.02223389782011509, -0.12527251243591309, 0.19128891825675964, 0.16686008870601654, -0.05800870805978775, 0.08878863602876663, -0.007956157438457012, 0.13506045937538147, -0.17777103185653687, -0.3692839741706848, 0.06966973841190338, -0.07825932651758194, 0.10736435651779175, 0.3698490262031555, 0.04856269061565399, 0.010968825779855251, 0.0813898891210556, -0.11270251125097275, 0.25956714153289795, 0.20061419904232025, -0.40914687514305115, -0.17636269330978394, -0.20177772641181946, -0.005664676893502474, 0.30118581652641296, 0.006023123860359192, 0.321317195892334, -0.09386558830738068, 0.009899936616420746, -0.24025829136371613, -0.15344513952732086, -0.09655538201332092, -0.3120819926261902, 0.026200534775853157, 0.13129059970378876, 0.24318073689937592, -0.014906604774296284, 0.28621435165405273, 0.20848619937896729, -0.10453782230615616, 0.09380488842725754, 0.18435944616794586, 0.16090595722198486, 0.053669847548007965, -0.10930786281824112, 0.09476494044065475, 0.134169340133667, -0.11013516038656235]}, "transformer.attention.value.bias": {"shape": [1, 16], "dtype": "f", "data": [-0.13799239695072174, 0.24039021134376526, 0.11953121423721313, -0.3498802185058594, -0.11931498348712921, -0.2324981391429901, 0.00856104027479887, -0.09135260432958603, -0.01285652443766594, -0.18898475170135498, 0.1886093020439148, 0.19790488481521606, -0.08183488249778748, 0.3089335858821869, 0.012645643204450607, -0.0932023748755455]}, "transformer.ff1.weight": {"shape": [32, 16], "dtype": "f", "data": [0.44744056463241577, -0.10411349684000015, 0.2303084284067154, -0.38190022110939026, -0.1597345471382141, 0.04406971111893654, 0.19967500865459442, 0.2481076866388321, 0.2841778099536896, -0.35058125853538513, 0.41043955087661743, 0.4449036717414856, -0.07261935621500015, -0.18610267341136932, 0.0016036260640248656, -0.47806188464164734, -0.2842618525028229, 0.21736373007297516, -0.20432814955711365, -0.2395448237657547, -0.3261847198009491, -0.083436518907547, 0.04821047559380531, 0.30095046758651733, 0.4058212637901306, -0.09660575538873672, 0.17447489500045776, 0.31393030285835266, -0.008764832280576229, 0.13895952701568604, 0.12485352158546448, 0.12019012123346329, -0.2686159014701843, -0.28461480140686035, 0.25109779834747314, 0.08712538331747055, 0.016264475882053375, 0.5482300519943237, -0.19012446701526642, 0.34550970792770386, 0.40227848291397095, -0.3665468096733093, 0.2453852742910385, 0.24006205797195435, 0.23851439356803894, 0.20987288653850555, -0.24587681889533997, -0.1414135992527008, -0.3913768231868744, -0.37172845005989075, 0.16222210228443146, -0.06295084953308105, -0.024429667741060257, -0.3187776505947113, -0.0020479727536439896, -0.16418646275997162, -0.12836600840091705, -0.2389483004808426, -0.3742196261882782, -0.22781477868556976, 0.33670875430107117, -0.6374115347862244, -0.13589128851890564, -0.32868921756744385, 0.4380354583263397, -0.05273205414414406, 0.5048999786376953, -0.5442322492599487, 0.18084587156772614, -0.1971529722213745, 0.3346560299396515, 0.41359713673591614, -0.32596495747566223, -0.4102388918399811, 0.24589300155639648, -0.09806305170059204, 0.010289579629898071, -0.26708984375, -0.041715357452631, -0.2616395950317383, -0.2684687674045563, 0.06551887840032578, -0.05370897427201271, 0.34868279099464417, 0.17767517268657684, 0.06661414355039597, 0.3690539300441742, -0.12489702552556992, -0.2494708001613617, -0.08685097098350525, -0.4550534784793854, -0.13591986894607544, -0.376640647649765, 0.25641393661499023, -0.002158005489036441, 0.07531234622001648, -0.24064016342163086, 0.3805463910102844, 0.3024492561817169, -0.30393925309181213, 0.094050832092762, -0.09340569376945496, 0.2616356611251831, 0.6647226810455322, -0.2226250022649765, -0.12018642574548721, -0.0518772266805172, 0.16216717660427094, 0.08729731291532516, -0.3183988034725189, -0.12918820977210999, -0.088392473757267, 0.4741719365119934, 0.2987281084060669, 0.030617961660027504, 0.07466298341751099, 0.5987350344657898, 0.13333041965961456, 0.32550618052482605, 0.10829107463359833, -0.23318621516227722, 0.25144749879837036, 0.5626569390296936, -0.3848007023334503, -0.5286425352096558, -0.15853345394134521, 0.274247407913208, -0.21784549951553345, -0.2544023096561432, 0.3107883334159851, -0.08137643337249756, -0.20009984076023102, 0.01944013684988022, -0.03703156113624573, -0.15159723162651062, 0.1909935623407364, -0.2534767985343933, 0.1369745135307312, -0.26033005118370056, 0.03584390506148338, 0.20226138830184937, 0.10949154198169708, 0.15569765865802765, 0.19982683658599854, -0.40690335631370544, 0.42858168482780457, -0.3701001703739166, -0.10683868080377579, -0.08394216746091843, -0.2871165871620178, 0.2248685508966446, -0.2958775758743286, 0.037375353276729584, 0.13254797458648682, 0.22200369834899902, 0.13824786245822906, -0.19724982976913452, 0.2629413902759552, 0.17843569815158844, 0.350975900888443, -0.07915014028549194, -0.14037682116031647, 0.3654960095882416, -0.10932733863592148, -0.23942485451698303, 0.32218337059020996, -0.20004557073116302, 0.5108680725097656, -0.07239382714033127, -0.39327824115753174, 0.17166371643543243, 0.12112477421760559, 0.41534224152565, 0.3349664509296417, -0.23716804385185242, -0.1497502624988556, 0.21881353855133057, -0.03678581118583679, 0.044275008141994476, -0.17338860034942627, -0.13992582261562347, 0.10458492487668991, 0.4507156014442444, 0.22251975536346436, 0.4284108579158783, -0.21065275371074677, 0.4292926490306854, -0.12334932386875153, -0.44275450706481934, -0.13175956904888153, -0.2406993955373764, -0.19893771409988403, 0.10253162682056427, 0.1585608869791031, -0.057197097688913345, -0.02940940670669079, 0.49843981862068176, -0.3612629771232605, 0.1572895050048828, -0.2981787621974945, -0.4244806170463562, -0.11011636257171631, -0.23943524062633514, -0.2507120370864868, -0.027201415970921516, 0.029409104958176613, 0.11226315796375275, -0.18083521723747253, 0.18576855957508087, 0.2328590452671051, -0.30475106835365295, -0.2293635904788971, 0.3118007481098175, 0.13877525925636292, -0.30159932374954224, 0.09097718447446823, -0.39881858229637146, 0.04541923850774765, -0.016060704365372658, 0.3161851465702057, 0.28301239013671875, 0.45042702555656433, 0.13766039907932281, 0.3437308073043823, 0.16980145871639252, 0.03149997815489769, -0.11516151577234268, -0.43088552355766296, -0.0835954025387764, 0.13088266551494598, -0.2182079404592514, 0.2632378339767456, -0.19533519446849823, -0.08332441002130508, 0.26943469047546387, 0.20146703720092773, 0.3386518359184265, 0.1906576156616211, 0.23152554035186768, -0.3092498183250427, -0.09588100761175156, 0.15247422456741333, 0.025169963017106056, 0.25009673833847046, 0.19495058059692383, -0.37854424118995667, -0.08155349642038345, -0.4939659833908081, -0.046889547258615494, -0.006595968268811703, -0.3078130781650543, -0.2688423693180084, -0.13928355276584625, 0.34159278869628906, -0.24220220744609833, -0.11035781353712082, 0.30882585048675537, -0.2098061889410019, -0.13727112114429474, -0.27775925397872925, 0.2896759510040283, 0.06391498446464539, -0.3150551915168762, 0.16163302958011627, -0.18523405492305756, 0.244125097990036, -0.056385111063718796, 0.45800578594207764, 0.27720513939857483, -0.0409320630133152, 0.007346258498728275, 0.4370233118534088, 0.15082813799381256, -0.014775311574339867, 0.36184874176979065, -0.4173628091812134, -0.2349933683872223, 0.05514288321137428, -0.16452987492084503, 0.3591885566711426, 0.6329399943351746, -0.2478465437889099, 0.37749943137168884, -0.12954729795455933, -0.1302001178264618, -0.5214791893959045, -0.21430443227291107, 0.3124910593032837, -0.01442840974777937, 0.27040234208106995, -0.10116545110940933, -0.009474515914916992, 0.2823950946331024, -0.14722460508346558, -0.03269475698471069, 0.19823025166988373, -0.29910653829574585, -0.012944363988935947, -0.2905992567539215, 0.3292168080806732, -0.1461406946182251, 0.15172472596168518, 0.16715866327285767, 0.18781913816928864, 0.369219571352005, -0.13050493597984314, 0.04476729407906532, 0.02178259938955307, 0.16233262419700623, -0.4533337652683258, -0.12879516184329987, -0.0061449711211025715, -0.1387426108121872, 0.03347379341721535, -0.4129217565059662, -0.24667857587337494, -0.15549007058143616, -0.021325334906578064, -0.15366746485233307, -0.21508318185806274, 0.05150885879993439, 0.032251253724098206, 0.370911180973053, -0.3689611256122589, -0.2704969346523285, 0.13228337466716766, -0.026975631713867188, 0.04884285852313042, 0.0831921175122261, -0.20534759759902954, -0.06733931601047516, 0.15533316135406494, 0.36333832144737244, -0.21874810755252838, -0.19959555566310883, -0.2128254622220993, -0.10732021182775497, 0.4588913917541504, -0.2649230659008026, 0.05652861297130585, -0.23527100682258606, -0.4610425531864166, 0.23425206542015076, -0.005435089115053415, -0.07599987089633942, -0.007647789549082518, -0.5405345559120178, -0.33106735348701477, -0.43860745429992676, -0.018890682607889175, 0.012526669539511204, 0.4475698471069336, -0.39582523703575134, 0.12239733338356018, 0.1530454307794571, 0.45272335410118103, -0.0013681950513273478, 0.39269009232521057, -0.2846764922142029, 0.4725535213947296, -0.3630409240722656, -0.2169259488582611, 0.05185840278863907, -0.10323226451873779, -0.06436020135879517, 0.23793651163578033, -0.09618914127349854, -0.05755313113331795, 0.08815958350896835, 0.394356906414032, 0.09314648061990738, -0.1574506163597107, 0.3793589174747467, -0.06727414578199387, 0.4491631090641022, -0.561754584312439, -0.27060025930404663, -0.26270565390586853, -0.3786115348339081, -0.19537456333637238, 0.13734197616577148, -0.1368250846862793, 0.22915863990783691, -0.022005340084433556, 0.11870243400335312, -0.3834388256072998, 0.23699408769607544, -0.18943700194358826, -0.27544519305229187, -0.3187185227870941, 0.28252142667770386, 0.14512288570404053, 0.21229076385498047, 0.035083141177892685, -0.3173825442790985, -0.3662911355495453, 0.11401854455471039, -0.7540271878242493, -0.4291077256202698, 0.4217716157436371, -0.27477505803108215, -0.3266720473766327, -0.2521226108074188, -0.22269324958324432, -0.3734433352947235, -0.19713260233402252, -0.018895000219345093, 0.04256699979305267, 0.3740583062171936, -0.07885929942131042, 0.3018474280834198, 0.07832448184490204, -0.46340155601501465, -0.2655136287212372, -0.07913638651371002, 0.24457509815692902, 0.5342075228691101, -0.06170445680618286, 0.15962272882461548, -0.016519157215952873, 0.29330408573150635, 0.022445783019065857, -0.029515782371163368, -0.12875889241695404, -0.13282626867294312, 0.11535374075174332, 0.08556625247001648, 0.05481485277414322, 0.07608456164598465, 0.0014814449241384864, 0.29185745120048523, -0.16526369750499725, 0.41926971077919006, -0.0255019199103117, -0.2185405194759369, -0.3117493987083435, 0.3260475695133209, -0.35716623067855835, -0.0774964690208435, -0.14696310460567474, -0.3942505121231079, -0.07386277616024017, -0.4618252217769623, -0.157060906291008, 0.26405319571495056, -0.1513068825006485, 0.049803730100393295, -0.09412555396556854, 0.12186823040246964, -0.002794485306367278, -0.12709937989711761, 0.08694705367088318, -0.42323142290115356, -0.260600745677948, -0.16618852317333221, 0.4111447334289551, -0.04656721651554108, 0.09529882669448853, -0.4240368902683258, -0.25256818532943726, -0.4110316336154938, -0.06788568943738937, -0.13621273636817932, 0.3296484053134918, 0.08516616374254227, 0.0245901420712471, 0.013389414176344872, 0.0289811659604311, 0.008095763623714447, 0.28364449739456177, -0.1660034954547882, -0.16520966589450836, 0.27569380402565, 0.07898886501789093, 0.05978433042764664, 0.030541211366653442, -0.21022383868694305, -0.1395045667886734, 0.12260120362043381, -0.10735282301902771, 0.13369935750961304, 0.1725136637687683, -0.301400750875473, -0.3269411623477936, -0.04951535537838936, -0.007426543161273003, -0.12599748373031616, -0.011985884979367256, -0.018751244992017746, 0.18216414749622345, -0.20725704729557037, 0.1443081945180893, 0.18057852983474731, 0.13077160716056824, 0.20655809342861176, 0.11884251981973648, -0.05809788033366203, 0.6166296005249023, 0.17817649245262146, -0.0025458766613155603, -0.3060062825679779, 0.18861643970012665, 0.2429540604352951, -0.20563966035842896, 0.08090797066688538, -0.43306615948677063, 0.35098692774772644, -0.0732586532831192, 0.3775999844074249, 0.5157873630523682, -0.3767532408237457, -0.4869479238986969]}, "transformer.ff1.bias": {"shape": [1, 32], "dtype": "f", "data": [0.04899928346276283, 0.288604736328125, 0.3289491534233093, -0.18925946950912476, 0.09125136584043503, 0.1548503190279007, 0.25195586681365967, 0.1038983166217804, 0.04861707240343094, 0.2953408658504486, 0.21482577919960022, 0.280995637178421, 0.2024841159582138, 0.47833526134490967, 0.22583037614822388, 0.2055775225162506, 0.1589093655347824, 0.23384277522563934, 0.3852253556251526, 0.32955726981163025, 0.4141850173473358, 0.2347218245267868, 0.02253538928925991, 0.08210853487253189, 0.03844531252980232, 0.4086567163467407, 0.15099333226680756, 0.22978585958480835, 0.09671027213335037, -0.20932990312576294, 0.010740827769041061, 0.15148869156837463]}, "transformer.ff2.weight": {"shape": [16, 32], "dtype": "f", "data": [0.18996286392211914, 0.16729941964149475, -0.2631371021270752, 0.49751371145248413, 0.1315348893404007, 0.1723514050245285, 0.17281977832317352, 0.41431725025177, -0.007122369483113289, 0.20917631685733795, -0.3210253417491913, 0.05786212161183357, 0.27234789729118347, 0.18260572850704193, -0.04577970132231712, 0.09252774715423584, 0.12073459476232529, -0.04192846640944481, 0.2614198923110962, 0.14058537781238556, -0.33426493406295776, 0.5802692770957947, -0.34840625524520874, 0.2470468133687973, 0.34026315808296204, 0.14810168743133545, 0.014556081965565681, 0.06656505167484283, 0.29816439747810364, -0.05762788653373718, 0.16997353732585907, -0.24625445902347565, 0.15779919922351837, -0.11429909616708755, -0.06537238508462906, -0.4636049270629883, -0.3181477189064026, 0.5132155418395996, -0.17503707110881805, -0.36308589577674866, 0.3321892023086548, -0.02758684754371643, 0.017672544345259666, -0.15301090478897095, -0.168474480509758, 0.15099187195301056, 0.15200451016426086, 0.028003748506307602, 0.09353050589561462, -0.08446092158555984, 0.2184148132801056, -0.19058111310005188, -0.024166107177734375, 0.23638461530208588, 0.1577351689338684, 0.17087852954864502, -0.2751258313655853, -0.1279880553483963, -0.047036062926054, 0.13934600353240967, 0.1745627224445343, -0.019487455487251282, 0.08272731304168701, 0.19719351828098297, -0.10632144659757614, -0.27381688356399536, -0.30649304389953613, 0.3649212718009949, 0.2797386646270752, 0.006319224368780851, 0.13900844752788544, 0.530837893486023, 0.008359156548976898, -0.10058712214231491, 0.013611259870231152, -0.264627605676651, 0.3004578948020935, 0.04768500104546547, 0.04099271446466446, 0.159967303276062, -0.12118352204561234, -0.4511345624923706, 0.14204144477844238, 0.23665553331375122, -0.022555651143193245, -0.24089787900447845, -0.0744713768362999, 0.42497777938842773, 0.13925138115882874, -0.10760866105556488, 0.0974380224943161, 0.24397331476211548, -0.1632872223854065, -0.04078914597630501, 0.035684529691934586, 0.21794669330120087, 0.3883638381958008, 0.03489304706454277, -0.17951266467571259, 0.5338869094848633, 0.4563405215740204, -0.10628632456064224, 0.22577610611915588, 0.3454114496707916, 0.05586223676800728, -0.307177871465683, -0.26437997817993164, 0.23299242556095123, -0.03238935396075249, -0.016736336052417755, -0.274430513381958, -0.01456086803227663, -0.19911299645900726, 0.4522758722305298, -0.19815091788768768, 0.19387991726398468, 0.07125383615493774, 0.39125901460647583, -0.1825575828552246, -0.18894720077514648, 0.689483106136322, 0.4334059953689575, -0.05940290540456772, -0.008995847776532173, 0.5798866748809814, 0.00799870491027832, -0.08885316550731659, -0.3130185008049011, -0.34696638584136963, -0.08018894493579865, 0.059570927172899246, -0.3444736897945404, -0.22872386872768402, 0.2732944190502167, 0.010302459821105003, -0.46760880947113037, 0.10157208144664764, 0.2570556104183197, 0.26654067635536194, -0.24478082358837128, -0.1649208515882492, 0.2679903507232666, -0.0006177155883051455, 0.05087288096547127, 0.2659982144832611, -0.20859172940254211, 0.06220744922757149, -0.2599983513355255, -0.26469093561172485, 0.05562707036733627, 0.1776793748140335, -0.10452643036842346, -0.05525226891040802, 0.004860010463744402, -0.02280423603951931, 0.04800025373697281, -0.125837504863739, -0.13648289442062378, 0.029474711045622826, -0.16050149500370026, -0.10347028076648712, -0.09864979982376099, 0.12085849046707153, 0.13630172610282898, 0.05718986317515373, 0.1450357884168625, -0.023277442902326584, 0.23272764682769775, 0.1742328256368637, -0.35373032093048096, -0.05146285519003868, -0.25835689902305603, 0.13431580364704132, 0.1742510348558426, 0.28094956278800964, -0.0026515380013734102, 0.35375747084617615, -0.29974818229675293, 0.23998001217842102, 0.029683973640203476, -0.12513181567192078, -0.11939966678619385, -0.11302262544631958, 0.10963853448629379, -0.011459244415163994, -0.19949877262115479, 0.007849845103919506, 0.162184476852417, -0.15209101140499115, -0.10067012906074524, 0.03291967511177063, -0.0727682039141655, -0.16049115359783173, -0.07405540347099304, -0.3836059868335724, 0.15057802200317383, 0.12936685979366302, -0.28567391633987427, -0.13408397138118744, 0.5208965539932251, -0.13945995271205902, 0.07480130344629288, -0.03885794058442116, -0.031710702925920486, 0.1311817169189453, -0.056488487869501114, -0.23397773504257202, 0.2124425172805786, 0.1344929039478302, -0.3351050913333893, -0.2108628898859024, 0.189093217253685, -0.23193679749965668, -0.12741777300834656, -0.20955657958984375, 0.06499961018562317, 0.11297882348299026, 0.09480985254049301, 0.21850143373012543, 0.06269513815641403, -0.0597790852189064, -0.148380309343338, -0.021428361535072327, -0.007010197266936302, 0.19511458277702332, 0.10692930221557617, 0.5623234510421753, -0.13617192208766937, 0.033277153968811035, 0.47598472237586975, 0.33128082752227783, -0.5055944919586182, 0.12929798662662506, 0.11594101041555405, 0.34922733902931213, -0.12898579239845276, -0.38407427072525024, 0.016581008210778236, -0.10235632956027985, 0.0002654797281138599, -0.010226095095276833, 0.09260804206132889, -0.010825514793395996, -0.26349201798439026, 0.21405187249183655, 0.27223828434944153, 0.4478170871734619, -0.23504304885864258, -0.13582000136375427, -0.03640691190958023, -0.3741309940814972, -0.2920093536376953, -0.05321716144680977, 0.06552334129810333, -0.22094237804412842, 0.22442853450775146, 0.4378716051578522, -0.1232314184308052, 0.47927841544151306, 0.17872153222560883, 0.2465125173330307, -0.6742636561393738, 0.12309069186449051, -0.050206102430820465, 0.050822749733924866, -0.2703859210014343, 0.25505921244621277, -0.02893548272550106, -0.31827110052108765, -0.07979410141706467, 0.12038586288690567, -0.5364289283752441, -0.06906328350305557, 0.2057902067899704, -0.2454911321401596, -0.09325771778821945, 0.4532030522823334, -0.4269024133682251, 0.3543817102909088, -0.353186696767807, 0.18741878867149353, -0.06229297071695328, 0.0699649527668953, -0.054303597658872604, 0.052110034972429276, -0.004480138886719942, 0.030853988602757454, -0.10704485327005386, -0.2342170774936676, 0.08379822969436646, 0.11952456086874008, -0.19949014484882355, -0.0789182260632515, 0.22102829813957214, -0.19838947057724, -0.42926523089408875, 0.08598478138446808, 0.21173591911792755, 0.2146533876657486, -0.17427785694599152, -0.08922988921403885, -0.09678088128566742, -0.14766302704811096, 0.028346046805381775, -0.18842659890651703, 0.04137077555060387, -0.220108300447464, -0.3558509647846222, -0.024531440809369087, -0.044534407556056976, 0.3076780438423157, -0.20449472963809967, -0.18557582795619965, 0.2645615339279175, -0.26790833473205566, -0.26252084970474243, -0.2364896684885025, -0.029468609020113945, 0.05220695212483406, 0.20470815896987915, 0.12508141994476318, 0.19945178925991058, 0.3410058617591858, -0.42865097522735596, -0.0378030501306057, 0.1285915970802307, -0.11329764127731323, -0.5727660059928894, -0.3648262023925781, 0.09916846454143524, 0.1371382772922516, 0.13520094752311707, -0.11142897605895996, -0.20537616312503815, 0.03811118006706238, 0.04317738860845566, -0.24541312456130981, 0.15384122729301453, -0.30196404457092285, -0.5316497087478638, 0.13662520051002502, 0.03229992464184761, -0.008508386090397835, -0.03115655668079853, -0.36502858996391296, 0.09475540369749069, -0.10477778315544128, -0.3575121760368347, -0.3646441698074341, -0.04670228064060211, -0.12102322280406952, 0.446487158536911, 0.11397071927785873, -0.41315314173698425, -0.178399920463562, 0.3965189456939697, 0.11663791537284851, -0.40318426489830017, -0.009900778532028198, 0.3170529007911682, 0.07641684263944626, -0.28163984417915344, 0.1869359314441681, -0.21005293726921082, 0.05690833926200867, 0.29946309328079224, 0.20535701513290405, 0.07287360727787018, 0.09882242232561111, -0.2277347594499588, 0.11931616067886353, 0.31539401412010193, 0.05198465287685394, -0.5816671252250671, -0.19661282002925873, 0.24088993668556213, 0.14989572763442993, -0.3829287886619568, 0.20818640291690826, 0.33400803804397583, -0.07593756169080734, 0.06514991819858551, 0.007780943065881729, -0.22432474792003632, 0.12284529954195023, -0.18799149990081787, 0.13053321838378906, 0.10951447486877441, 0.4104030728340149, 0.1235218346118927, 0.13709312677383423, 0.3458341360092163, -0.028821980580687523, -0.4118020236492157, 0.1753864884376526, -0.23683030903339386, 0.23144418001174927, 0.01586940698325634, -0.0007458911277353764, 0.14527222514152527, -0.03640636429190636, -0.2799350917339325, 0.18401092290878296, -0.028908519074320793, 0.13697193562984467, -0.07252915948629379, 0.23337778449058533, 0.32301366329193115, -0.02472796104848385, -0.44328773021698, 0.06388910114765167, -0.01984640397131443, 0.17875202000141144, -0.0005847673746757209, 0.02988414280116558, -0.09230460226535797, 0.10118833929300308, -0.18404123187065125, -0.06313770264387131, 0.13324564695358276, 0.3578537106513977, 0.07138966023921967, 0.2949165403842926, 0.10939396917819977, -0.12361908704042435, -0.07779186964035034, 0.12442424893379211, 0.1965133547782898, 0.15246136486530304, -0.3044786751270294, 0.07495613396167755, 0.44917792081832886, -0.17368191480636597, -0.12951432168483734, -0.2847440540790558, 0.33903077244758606, 0.29879605770111084, -0.441720187664032, 0.15641267597675323, 0.4044986367225647, -0.1708911657333374, -0.37630656361579895, 0.1551118940114975, 0.0778605043888092, -0.3041587471961975, -0.13151079416275024, -0.241030752658844, 0.4225577116012573, 0.29330161213874817, -0.10146718472242355, 0.15069785714149475, 0.2330394685268402, 0.25538113713264465, -0.21148979663848877, -0.08977854996919632, -0.000878332182765007, -0.1122187003493309, -0.3064343333244324, 0.3156195282936096, 0.2552869915962219, -0.17313124239444733, 0.224573016166687, 0.039575714617967606, -0.1840589940547943, 0.2328985035419464, -0.010873300023376942, -0.12300342321395874, 0.09905034303665161, 0.4119165241718292, -0.4664154052734375, 0.010879538021981716, 0.06831562519073486, -0.20428511500358582, -0.0636606439948082, 0.2762320637702942, 0.22569146752357483, -0.18762126564979553, 0.06402462720870972, -0.04346058890223503, -0.05127642676234245, -0.30466362833976746, -0.23772214353084564, -0.2155930995941162, -0.005406869109719992, -0.12389678508043289, 0.2995983362197876, -0.2524222731590271, 0.47371751070022583, 0.2634643614292145, 0.39601531624794006, -0.3919091820716858, -0.14591115713119507, 0.35171693563461304, 0.15346938371658325, -0.05940946564078331, 0.36324435472488403, 0.06560017913579941, -0.28219443559646606, 0.28454580903053284, 0.027709370478987694, -0.3179924786090851, 0.20875847339630127, -0.17596524953842163, 0.41299015283584595, -0.16976873576641083, -0.2132652997970581, 0.2249622792005539, 0.3400436341762543, -0.08050476759672165, 0.03994029760360718, 0.28964030742645264, -0.09623702615499496]}, "transformer.ff2.bias": {"shape": [1, 16], "dtype": "f", "data": [-0.0991588607430458, -0.09125259518623352, 0.1399555802345276, -9.04966946109198e-05, -0.18144631385803223, -0.18730904161930084, -0.058012641966342926, 0.09133900701999664, -0.018457544967532158, -0.0642525851726532, 0.008992994204163551, 0.044965710490942, 0.149325430393219, 0.06928139925003052, 0.0005843454273417592, 0.09492091089487076]}, "output_proj.weight": {"shape": [8, 16], "dtype": "f", "data": [-0.17092116177082062, 0.20035427808761597, -0.18723297119140625, -0.17537763714790344, -0.1880110502243042, -0.12986339628696442, -0.3597070574760437, 0.2288120985031128, 0.3214018940925598, 0.046845123171806335, 0.44027179479599, -0.15460336208343506, 0.17903654277324677, 0.2837863862514496, 0.30713629722595215, -0.2856428027153015, -0.11543949693441391, 0.031803298741579056, -0.24984250962734222, -0.31975242495536804, 0.2747972905635834, 0.26200103759765625, -0.021618083119392395, -0.38825902342796326, 0.07577644288539886, -0.05230884999036789, -0.07169154286384583, 0.24979066848754883, 0.0384269654750824, -0.13401095569133759, 0.3028468191623688, 0.20123670995235443, -0.05132289603352547, 0.10295301675796509, -0.032602258026599884, -0.29428187012672424, 0.09772638231515884, -0.19569961726665497, 0.5445531606674194, -0.1921539604663849, -0.3785550892353058, 0.1347358673810959, 0.5794885754585266, -0.42475566267967224, -0.20760780572891235, 0.218994140625, -0.5312206745147705, 0.390068918466568, 0.15163034200668335, -0.37521296739578247, -0.26370668411254883, 0.3136979341506958, 0.09529899805784225, -0.2663276195526123, 0.1843305081129074, 0.30467185378074646, 0.31080180406570435, -0.0791962668299675, 0.10222895443439484, -0.2424931526184082, -0.08218860626220703, -0.37799766659736633, -0.09927687793970108, -0.1720668524503708, 0.22689639031887054, -0.15407170355319977, 0.49887001514434814, 0.13357892632484436, -0.18753638863563538, 0.07869628071784973, 0.32372862100601196, -0.4107769727706909, 0.02697576768696308, -0.35869747400283813, -0.2824600338935852, 0.1751301884651184, 0.2756159007549286, 0.28062328696250916, 0.08222600072622299, 0.18259887397289276, 0.33498311042785645, 0.42187824845314026, -0.23861531913280487, -0.04924242943525314, 0.34481656551361084, 0.04694882780313492, -0.3011919856071472, 0.19094572961330414, -0.20360958576202393, -0.14502283930778503, -0.22698844969272614, -0.13733869791030884, 0.25860270857810974, -0.2534116804599762, -0.18481984734535217, 0.3804587721824646, -0.2784639894962311, 0.012598774395883083, 0.0660831555724144, -0.060608379542827606, 0.3938458561897278, 0.2555135190486908, -0.23946784436702728, 0.3521181046962738, 0.24979139864444733, 0.3067153990268707, 0.2132306694984436, -0.16562268137931824, 0.2805826961994171, 0.10661371052265167, -0.09504612535238266, -0.11688981205224991, 0.1882503777742386, -0.13511985540390015, -0.342298299074173, 0.34245237708091736, -0.24813973903656006, -0.030049080029129982, 0.016623273491859436, -0.14837266504764557, 0.035796549171209335, -0.02825675532221794, -0.22760504484176636, -0.3096039891242981, -0.13333085179328918, -0.2961769700050354, -0.33441051840782166, -0.058144912123680115]}, "output_proj.bias": {"shape": [1, 8], "dtype": "f", "data": [-0.06608396023511887, 0.0978066697716713, 0.2511826455593109, 0.1463080793619156, 0.2547541856765747, -0.004428147338330746, -0.11437635123729706, -0.03859721124172211]}}